<?xml version="1.0"?>
<opencv_storage>
<opencv_ml_svm>
  <format>3</format>
  <svmType>C_SVC</svmType>
  <kernel>
    <type>LINEAR</type></kernel>
  <C>1.</C>
  <term_criteria><epsilon>1.0000000000000000e-02</epsilon>
    <iterations>1000</iterations></term_criteria>
  <var_count>32</var_count>
  <class_count>2</class_count>
  <class_labels type_id="opencv-matrix">
    <rows>2</rows>
    <cols>1</cols>
    <dt>i</dt>
    <data>
      -1 1</data></class_labels>
  <sv_total>1</sv_total>
  <support_vectors>
    <_>
      2.19602492e-02 2.23820712e-02 1.66172124e-02 -8.75460878e-02
      -1.76723301e-02 1.06193781e-01 -4.57141772e-02 9.65225101e-02
      4.42718491e-02 5.91811948e-02 4.23803516e-02 -1.16256535e-01
      -1.61079273e-01 -3.28143910e-02 -1.03796199e-01 -6.66436628e-02
      -6.91513643e-02 -1.58899665e-01 -4.28575873e-01 -7.04524070e-02
      2.32099984e-02 7.97714442e-02 6.27833530e-02 5.08544259e-02
      7.07429275e-02 -7.83129632e-02 2.12158598e-02 -3.08692545e-01
      3.54495272e-03 -1.42851084e-01 -8.79246742e-02 2.50654742e-02</_></support_vectors>
  <uncompressed_sv_total>15</uncompressed_sv_total>
  <uncompressed_support_vectors>
    <_>
      1.01837611e+00 7.06961811e-01 2.69052356e-01 5.04765153e-01
      3.52107495e-01 6.03134155e-01 1.32632840e+00 8.51043046e-01
      1.36867416e+00 9.33351934e-01 1.33518505e+00 1.33820820e+00
      1.84924269e+00 1.17909718e+00 9.45156157e-01 3.16327214e-01
      1.13867676e+00 1.05336297e+00 7.58553386e-01 5.15587926e-01
      6.78088605e-01 6.71104372e-01 9.15386081e-01 6.56014562e-01
      1.12496305e+00 1.48883581e+00 8.44996572e-01 5.96176624e+00
      2.50812931e+01 4.86986589e+00 9.48727310e-01 1.22580814e+00</_>
    <_>
      3.70852172e-01 6.49780989e-01 1.18082058e+00 3.61202002e-01
      6.98455632e-01 8.30935717e-01 1.48223567e+00 1.28707588e+00
      1.61674690e+00 1.57968795e+00 8.48954320e-01 3.07035780e+00
      1.30596046e+01 4.06051397e+00 9.10936356e-01 8.94893408e-01
      7.16230810e-01 6.63372517e-01 5.34135997e-01 3.67823571e-01
      7.81677306e-01 6.18808866e-01 1.17273188e+00 8.80982220e-01
      1.59171653e+00 1.87271905e+00 1.08992577e+00 1.51337612e+00
      1.33108342e+00 1.25231981e+00 8.25041533e-01 9.65423524e-01</_>
    <_>
      2.41908133e-01 4.64712292e-01 2.34369993e-01 5.26789665e-01
      7.06397831e-01 2.75750637e-01 6.94072962e-01 4.70437199e-01
      1.15292525e+00 1.13430715e+00 2.34004593e+00 9.17566299e-01
      1.21438718e+00 5.88857234e-01 5.81611335e-01 3.59234184e-01
      8.30517590e-01 6.05372488e-01 2.57351816e-01 2.65964657e-01
      6.37712777e-01 7.44056165e-01 7.16481626e-01 6.04102373e-01
      5.56217134e-01 1.45983326e+00 6.67046738e+00 9.69347763e+00
      1.55192280e+00 5.39528549e-01 3.92971843e-01 7.46307492e-01</_>
    <_>
      8.97985458e-01 5.42927682e-01 6.71028316e-01 7.14005888e-01
      5.02207816e-01 9.87809896e-01 1.82666123e+00 1.35661256e+00
      1.88585067e+00 1.05203068e+00 3.35456109e+00 1.67865181e+01
      4.51859140e+00 7.97961116e-01 1.06821561e+00 4.22419280e-01
      9.02225137e-01 1.03693712e+00 5.00896275e-01 6.53512657e-01
      9.35608566e-01 1.06736279e+00 5.81196547e-01 1.15754640e+00
      1.85818768e+00 1.47176516e+00 1.17511392e+00 1.41589546e+00
      1.60396266e+00 1.18981183e+00 9.40535247e-01 1.39677930e+00</_>
    <_>
      3.11572045e-01 2.48718262e-01 3.02097321e-01 2.08935499e-01
      4.88294959e-01 4.82033908e-01 5.00561476e-01 1.14848889e-01
      4.63512182e-01 2.34735757e-01 2.63612717e-01 8.08490217e-02
      4.47050780e-01 3.75240356e-01 6.63058758e-01 6.00661457e-01
      1.60280836e+00 2.38725495e+00 6.03241253e+00 1.64663076e+00
      2.90183991e-01 1.84948236e-01 1.15341850e-01 1.29995525e-01
      3.88803959e-01 3.70782197e-01 3.03790718e-01 0. 2.97513574e-01
      2.70879924e-01 2.60186434e-01 5.32290816e-01</_>
    <_>
      1.91520619e+00 4.88641548e+00 7.19055748e+00 1.42359552e+01
      6.79940939e+00 1.29536462e+00 1.01567757e+00 1.41740963e-01
      5.42697847e-01 3.69778544e-01 3.79529744e-01 4.98981208e-01
      2.44527206e-01 3.84694755e-01 6.66807115e-01 5.79835415e-01
      1.39207280e+00 1.51866150e+00 3.58638239e+00 6.43913269e+00
      1.14315519e+01 8.06851268e-01 1.07300651e+00 4.35053647e-01
      8.16793203e-01 2.25056350e-01 3.51117074e-01 6.76835835e-01
      3.88409019e-01 5.50147653e-01 7.19663084e-01 1.20089173e+00</_>
    <_>
      2.56598175e-01 7.78247297e-01 4.72666502e-01 3.94880325e-01
      3.89650434e-01 3.41071934e-01 8.61565709e-01 2.44778201e-01
      6.84352994e-01 5.27857125e-01 2.51493305e-01 4.63702649e-01
      6.12556219e-01 4.65686947e-01 1.52855635e+00 1.30218375e+00
      2.23492165e+01 1.13241327e+00 2.58046627e+00 1.86231089e+00
      4.23196524e-01 6.19378328e-01 4.95403081e-01 1.78082302e-01
      6.99191570e-01 4.32592988e-01 4.09334779e-01 1.78293645e-01
      3.19549948e-01 7.19662964e-01 2.88285106e-01 8.50752413e-01</_>
    <_>
      4.91091192e-01 7.54369080e-01 5.76299012e-01 5.18744946e-01
      5.65970182e-01 4.44099128e-01 1.27940226e+00 4.42242235e-01
      6.38198555e-01 4.59287941e-01 5.74780822e-01 5.27063847e-01
      5.41097939e-01 4.49916095e-01 1.53399763e+01 1.30355339e+01
      1.48440731e+00 1.36084294e+00 6.22566044e-01 5.10936201e-01
      8.19838405e-01 6.31172180e-01 6.04990065e-01 5.09790421e-01
      6.06016994e-01 9.21340108e-01 8.81826878e-01 4.81129855e-01
      1.01821685e+00 6.81640565e-01 8.22136998e-01 7.09021628e-01</_>
    <_>
      6.51819110e-01 8.41226161e-01 5.72943926e-01 4.25355971e-01
      7.46990085e-01 2.10957572e-01 4.80069518e-01 3.40706825e-01
      5.51655889e-01 6.47448897e-01 5.28785944e-01 5.05254805e-01
      6.88429117e-01 1.28832197e+00 1.07678759e+00 6.35345757e-01
      1.08342052e+00 6.75259531e-01 4.67966497e-01 2.96200752e-01
      3.90111625e-01 6.67931557e-01 4.83343989e-01 2.33184874e-01
      6.18529379e-01 2.15286374e-01 5.76923370e-01 4.25663769e-01
      2.84721166e-01 5.53061008e+00 2.26742535e+01 4.07337189e+00</_>
    <_>
      1.43255162e+00 2.03219199e+00 3.98539394e-01 4.95202392e-01
      4.40527141e-01 9.77360845e-01 9.39373136e-01 1.68200731e+00
      1.33542359e+00 1.40415919e+00 9.11146343e-01 7.41886318e-01
      1.12849724e+00 2.46565037e+01 1.03460426e+01 2.12783170e+00
      1.14660621e+00 6.47818267e-01 1.05306435e+00 1.25839257e+00
      5.57679892e-01 6.50983334e-01 8.60945702e-01 1.10875273e+00
      1.90730107e+00 1.59485459e+00 2.00837612e+00 2.43358493e+00
      1.42216456e+00 1.10722899e+00 1.20775604e+00 1.31465650e+00</_>
    <_>
      3.54970694e-01 2.77439862e-01 4.31921184e-01 1.69355974e-01
      1.39281020e-01 4.15113360e-01 2.52311200e-01 2.84206569e-01
      5.93581080e-01 6.28961205e-01 1.17575932e+00 1.72447002e+00
      3.19687510e+00 1.08216918e+00 9.65295851e-01 6.71700597e-01
      5.03354192e-01 9.32914764e-02 3.15007091e-01 1.08181320e-01
      3.78996491e-01 3.35587889e-01 2.12505460e-01 3.31506699e-01
      7.50193059e-01 1.91414386e-01 4.20263767e-01 1.03482759e+00
      1.42095671e+01 1.40711486e+00 8.95717382e-01 7.54951656e-01</_>
    <_>
      5.63803852e-01 7.65068352e-01 1.34766960e+00 1.10810590e+00
      1.34930170e+00 1.73320484e+00 1.25262201e+00 9.24221158e-01
      2.05128670e+00 1.37386405e+00 9.99308884e-01 1.26222169e+00
      1.83964157e+00 1.23544621e+00 8.82199526e-01 9.38932836e-01
      1.04118741e+00 1.35115910e+00 1.09608603e+00 1.52810884e+00
      1.20347059e+00 1.42505181e+00 7.77707458e-01 1.33357930e+00
      7.83650339e-01 1.73772562e+00 1.28951156e+00 7.72145689e-01
      6.69857919e-01 7.90636063e-01 7.83606887e-01 1.11734533e+00</_>
    <_>
      1.69615197e+00 1.17833626e+00 1.00794661e+00 7.48457909e-01
      7.32166350e-01 1.62338948e+00 1.16564226e+00 1.20030475e+00
      2.21833277e+00 1.05403316e+00 8.46410215e-01 9.49708641e-01
      1.48494518e+00 1.18841839e+00 1.27342427e+00 1.15519607e+00
      1.67669535e+00 1.54000437e+00 8.97104561e-01 1.66043508e+00
      1.00149560e+00 7.45892107e-01 1.66919196e+00 6.58482909e-01
      1.34053016e+00 9.39231455e-01 1.88613212e+00 1.23726213e+00
      1.13909793e+00 9.92418468e-01 1.39946067e+00 2.28564930e+00</_>
    <_>
      9.96446252e-01 1.03772271e+00 7.36638606e-01 7.87747741e-01
      1.26382029e+00 1.15999246e+00 1.19822884e+00 1.62370586e+00
      1.79582882e+00 1.58122420e+00 1.21195734e+00 1.54508996e+00
      1.45150483e+00 1.28859270e+00 1.24470520e+00 5.28613210e-01
      1.16829848e+00 1.32416379e+00 8.29598069e-01 4.42108005e-01
      1.63616443e+00 1.75454628e+00 1.61039400e+00 5.29240489e-01
      1.86065435e+00 1.64263856e+00 1.60652578e+00 2.04552388e+00
      8.93210769e-01 6.21726930e-01 1.05075181e+00 1.01317930e+00</_>
    <_>
      2.95149922e-01 1.15492523e+00 1.21172440e+00 9.10797298e-01
      1.33204484e+00 1.42208517e+00 1.14269435e+00 1.81559598e+00
      9.97647643e-01 1.39921331e+00 1.33129489e+00 1.27883255e+00
      2.28686929e+00 1.25103605e+00 9.58794415e-01 8.48469138e-01
      1.05776811e+00 9.18785214e-01 1.39809632e+00 1.11840987e+00
      2.14482737e+00 1.52088618e+00 1.09668267e+00 1.28241193e+00
      1.64031625e+00 9.14788604e-01 1.70798397e+00 1.02580619e+00
      4.36940283e-01 9.60101366e-01 8.55980217e-01 5.85698009e-01</_></uncompressed_support_vectors>
  <decision_functions>
    <_>
      <sv_count>1</sv_count>
      <rho>-2.3277939316980953e+00</rho>
      <alpha>
        1.</alpha>
      <index>
        0</index></_></decision_functions></opencv_ml_svm>
</opencv_storage>
