<?xml version="1.0"?>
<opencv_storage>
<opencv_ml_svm>
  <format>3</format>
  <svmType>C_SVC</svmType>
  <kernel>
    <type>LINEAR</type></kernel>
  <C>1.</C>
  <term_criteria><epsilon>1.0000000000000000e-02</epsilon>
    <iterations>1000</iterations></term_criteria>
  <var_count>32</var_count>
  <class_count>2</class_count>
  <class_labels type_id="opencv-matrix">
    <rows>2</rows>
    <cols>1</cols>
    <dt>i</dt>
    <data>
      -1 1</data></class_labels>
  <sv_total>1</sv_total>
  <support_vectors>
    <_>
      -1.09110624e-01 -1.94111273e-01 -1.46177649e-01 -2.26715580e-01
      -1.35177970e-01 -2.81453412e-02 1.16767168e-01 1.79546803e-01
      1.08719446e-01 1.18346609e-01 2.82411184e-02 -5.66837229e-02
      -1.54837713e-01 -5.54757714e-02 -1.58245880e-02 -4.28116322e-02
      -1.11101065e-02 -2.71958977e-01 -8.21787044e-02 -1.41332477e-01
      -2.15207458e-01 -4.98114564e-02 -1.30653363e-02 1.22615539e-01
      1.28238246e-01 1.90386660e-02 1.17742799e-01 -1.03066474e-01
      -1.88587591e-01 -3.94459218e-02 -7.61713684e-02 -7.07108900e-02</_></support_vectors>
  <uncompressed_sv_total>12</uncompressed_sv_total>
  <uncompressed_support_vectors>
    <_>
      7.24770069e-01 9.96974826e-01 3.99450040e+00 7.61685658e+00
      3.16961408e+00 1.60439372e+00 8.71538639e-01 3.74132901e-01
      9.14595544e-01 6.32156551e-01 9.39817548e-01 8.49483848e-01
      6.07214093e-01 9.39764917e-01 6.82820201e-01 8.85278225e-01
      1.19409132e+00 1.00931895e+00 8.79666388e-01 6.48449838e-01
      1.15954709e+00 1.45012581e+00 9.70865250e-01 9.31432903e-01
      9.14299369e-01 8.89463007e-01 6.65452182e-01 7.86531687e-01
      9.02111471e-01 8.27188969e-01 7.47546196e-01 1.10249233e+00</_>
    <_>
      4.29330111e-01 7.85538673e-01 1.01231205e+00 1.50298512e+00
      9.77474391e-01 8.17245960e-01 1.75742233e+00 1.78744602e+00
      1.83536959e+00 1.28290403e+00 1.24750173e+00 1.34327352e+00
      8.75812948e-01 2.63381094e-01 9.85938728e-01 5.52703381e-01
      4.50863093e-01 1.48331261e+00 3.32585192e+00 9.20507431e+00
      6.93959808e+00 1.87962425e+00 1.08381724e+00 1.18810296e+00
      2.07474613e+00 1.26839244e+00 7.05874979e-01 1.00917614e+00
      1.35864127e+00 6.66523039e-01 1.10727715e+00 1.12118840e+00</_>
    <_>
      2.45328158e-01 2.58652180e-01 2.30011195e-01 6.12653643e-02
      4.74478841e-01 1.72128528e-01 2.42291227e-01 2.13542819e-01
      3.82332921e-01 3.82548094e-01 1.66050780e+00 8.19367504e+00
      9.65202999e+00 3.98062921e+00 2.62684536e+00 1.18168771e+00
      1.67213309e+00 6.49446428e-01 4.39195782e-01 1.36665449e-01
      2.45125815e-01 3.37405354e-01 3.04858208e-01 1.85842037e-01
      6.22334778e-01 2.13752240e-01 3.01835918e+00 3.82230091e+00
      6.01358986e+00 1.61085093e+00 8.67849708e-01 4.05878186e-01</_>
    <_>
      7.51688123e-01 2.40127921e-01 4.98891830e-01 7.84313679e-02
      6.22125685e-01 5.51573873e-01 3.75501513e-01 1.39257878e-01
      1.03812766e+00 6.68137193e-01 5.74085593e-01 1.86594915e+00
      4.94040966e+00 2.76759672e+00 1.09599030e+00 1.16729736e+00
      6.48973107e-01 2.44967833e-01 4.66857225e-01 5.65629005e-01
      4.79566664e-01 2.85040975e-01 6.28433943e-01 2.05083907e-01
      7.94739485e-01 7.92156041e-01 1.29088187e+00 5.18302298e+00
      8.59036064e+00 6.61917830e+00 2.42618871e+00 7.81390786e-01</_>
    <_>
      3.61543775e+00 9.25249755e-01 1.12767088e+00 3.03663790e-01
      2.66555548e-01 1.58875793e-01 5.58785319e-01 2.05439329e-01
      5.66091835e-01 1.54014528e-01 2.14780822e-01 3.27367008e-01
      5.99227905e-01 1.49097228e+00 7.68077326e+00 6.50486374e+00
      3.28908777e+00 6.19116127e-01 5.71611226e-01 3.40789318e-01
      4.47256714e-01 3.39201033e-01 1.47771046e-01 2.18057930e-01
      3.06099534e-01 1.42993882e-01 3.78266245e-01 5.02362698e-02
      1.21353042e+00 6.01911020e+00 1.16758461e+01 1.27367992e+01</_>
    <_>
      7.24219799e-01 8.98284495e-01 4.79755014e-01 5.82843065e-01
      4.53879386e-01 9.20667231e-01 5.33872008e-01 3.91346723e-01
      6.02362514e-01 6.26350760e-01 6.91037476e-01 3.51057559e-01
      5.77944398e-01 3.13016415e-01 7.37452567e-01 9.84876573e-01
      4.04438066e+00 9.45245647e+00 5.25030375e+00 2.93053895e-01
      3.51333529e-01 3.24814260e-01 5.67264378e-01 1.46041453e-01
      4.52385098e-01 6.27864182e-01 3.54832917e-01 7.06437528e-01
      5.85793078e-01 5.47719836e-01 8.13271344e-01 7.86803603e-01</_>
    <_>
      3.84395003e-01 2.69447279e+00 1.13674307e+00 3.68103325e-01
      1.24407148e+00 1.05658925e+00 9.37991083e-01 6.91462040e-01
      5.50374150e-01 1.20642960e+00 5.51692665e-01 4.84224617e-01
      5.41710615e-01 1.38805002e-01 6.77396476e-01 7.30989099e-01
      1.29025924e+00 5.37586164e+00 7.40058708e+00 4.20686722e+00
      1.27832830e+00 1.39358747e+00 5.20866513e-01 5.69936752e-01
      9.60876286e-01 6.71532571e-01 3.16528052e-01 6.92731440e-01
      5.64277053e-01 7.42581606e-01 5.82627177e-01 7.37390935e-01</_>
    <_>
      7.81681871e+00 9.30087185e+00 2.62960172e+00 1.09720731e+00
      8.47971320e-01 1.55403388e+00 6.74968719e-01 8.17576885e-01
      1.59719241e+00 1.55137324e+00 1.57868123e+00 9.99246299e-01
      7.15545714e-01 4.42884833e-01 1.12347519e+00 1.71341467e+00
      1.73615849e+00 8.02911520e-01 1.24353147e+00 6.59561992e-01
      1.31522334e+00 1.25377369e+00 1.82610941e+00 1.42606139e+00
      1.86493087e+00 1.18495381e+00 1.12155628e+00 8.22512567e-01
      9.09720242e-01 9.76496756e-01 8.97160947e-01 1.57649076e+00</_>
    <_>
      8.66332129e-02 2.68658966e-01 1.26827702e-01 3.17175120e-01
      8.40022182e+00 9.58105946e+00 1.83857214e+00 9.73743975e-01
      4.43996400e-01 2.85856068e-01 3.09606850e-01 7.84493908e-02
      1.91390201e-01 1.56613544e-01 1.84928581e-01 9.83788371e-02
      3.73053133e-01 3.63809824e-01 6.14536941e-01 1.36522043e+00
      9.75445747e+00 1.04465904e+01 5.02893543e+00 2.37397838e+00
      1.32706046e+00 8.83084655e-01 3.92036170e-01 3.39766592e-01
      5.48839092e-01 1.23251796e-01 1.24094948e-01 3.04284543e-01</_>
    <_>
      1.39117050e+00 1.62379837e+00 1.09905541e+00 1.55889475e+00
      1.17132044e+00 1.87742889e+00 1.48024631e+00 1.47043061e+00
      1.34015012e+00 1.38431668e+00 1.12662470e+00 1.52388942e+00
      1.15149462e+00 7.41784811e-01 8.67728293e-01 1.06127489e+00
      1.75018501e+00 1.27666187e+00 2.31791806e+00 1.06056690e+00
      1.33803368e+00 1.97932911e+00 1.11926496e+00 1.52077067e+00
      1.76118565e+00 9.21771049e-01 1.63447797e+00 9.72923100e-01
      1.53083134e+00 1.55681837e+00 4.70984012e-01 9.21332896e-01</_>
    <_>
      1.15880585e+00 9.00911927e-01 1.21502054e+00 1.19275558e+00
      1.83846319e+00 1.26422429e+00 1.05094361e+00 1.15157890e+00
      1.53611648e+00 1.12903476e+00 9.26730037e-01 5.78844309e-01
      1.18184614e+00 9.37096357e-01 1.41778886e+00 7.60043502e-01
      1.11407077e+00 1.22845626e+00 9.90772545e-01 1.40592813e+00
      1.30549133e+00 8.51812780e-01 1.24839020e+00 1.05437434e+00
      1.38698697e+00 9.17169571e-01 8.66921067e-01 1.20657468e+00
      1.01339579e+00 1.15919852e+00 1.80676639e+00 1.09920812e+00</_>
    <_>
      1.07806814e+00 1.48474169e+00 1.69792426e+00 1.32981074e+00
      9.31238592e-01 8.03383768e-01 1.11367297e+00 4.90323544e-01
      1.20028090e+00 1.36823010e+00 1.27653193e+00 1.28351867e+00
      8.42552185e-01 9.14806426e-01 1.30232477e+00 8.46330762e-01
      1.25273585e+00 6.30415022e-01 1.09571183e+00 1.10859251e+00
      1.47822833e+00 1.36763728e+00 1.73785806e+00 9.97094035e-01
      9.62677062e-01 7.26991415e-01 1.12426186e+00 6.70163155e-01
      1.13755679e+00 1.30742073e+00 9.78514791e-01 1.18057179e+00</_></uncompressed_support_vectors>
  <decision_functions>
    <_>
      <sv_count>1</sv_count>
      <rho>-2.8128235403217023e+00</rho>
      <alpha>
        1.</alpha>
      <index>
        0</index></_></decision_functions></opencv_ml_svm>
</opencv_storage>
