<?xml version="1.0"?>
<opencv_storage>
<opencv_ml_svm>
  <format>3</format>
  <svmType>C_SVC</svmType>
  <kernel>
    <type>LINEAR</type></kernel>
  <C>1.</C>
  <term_criteria><epsilon>1.0000000000000000e-02</epsilon>
    <iterations>1000</iterations></term_criteria>
  <var_count>32</var_count>
  <class_count>2</class_count>
  <class_labels type_id="opencv-matrix">
    <rows>2</rows>
    <cols>1</cols>
    <dt>i</dt>
    <data>
      -1 1</data></class_labels>
  <sv_total>1</sv_total>
  <support_vectors>
    <_>
      -5.14322892e-02 2.03424469e-01 -1.16137765e-01 1.57941818e-01
      1.36549994e-01 -7.04404056e-01 1.30997896e-01 5.29070720e-02
      1.38719514e-01 -4.92105305e-01 -2.89507657e-01 -1.23981595e+00
      -9.49393928e-01 1.05689406e+00 -1.16764335e-02 1.51913419e-01
      -2.61390090e-01 -1.74298972e-01 -4.90227193e-01 3.73079479e-02
      -6.17079496e-01 -2.61349469e-01 -4.87361938e-01 -6.61787689e-02
      -5.04808575e-02 6.76005036e-02 -1.12778795e+00 -1.31604683e+00
      8.32766354e-01 6.35970712e-01 3.96867931e-01 -4.69697028e-01</_></support_vectors>
  <uncompressed_sv_total>41</uncompressed_sv_total>
  <uncompressed_support_vectors>
    <_>
      3.16166952e-02 9.81114730e-02 2.02230439e-01 0. 3.33215088e-01
      2.66939968e-01 3.64018917e-01 1.02383316e-01 6.37438953e-01
      1.44919753e+00 2.06421471e+00 1.01297867e+00 9.54515874e-01
      4.46678281e-01 3.16752344e-01 5.15836440e-02 4.90196049e-01
      1.72581390e-01 1.82678670e-01 6.12653643e-02 3.13542366e-01
      9.84299853e-02 1.13360770e-01 7.10279644e-02 3.49718034e-01
      2.85680622e-01 3.40541363e-01 1.89903438e-01 5.22347152e-01
      2.21533597e-01 3.25477839e-01 6.39215648e-01</_>
    <_>
      0. 0. 5.61607964e-02 0. 2.82842636e-01 1.05226725e-01
      3.99923362e-02 8.66302773e-02 1.49123359e+00 8.84938955e-01
      2.13243556e+00 1.50677180e+00 4.85904813e-01 1.41394157e-02
      8.08452368e-02 0. 1.17647082e-01 0. 1.41394157e-02 0.
      5.54593541e-02 4.24182490e-02 0. 0. 4.00541782e-01 7.94263631e-02
      7.54505917e-02 5.27593084e-02 1.38899937e-01 4.58166189e-02
      7.81538263e-02 4.07843202e-01</_>
    <_>
      0. 1.24010881e-02 6.67527765e-02 0. 2.16291383e-01 1.28093198e-01
      2.48021763e-02 2.49166742e-01 1.32801056e+00 5.47490835e-01
      7.03159690e-01 6.71544433e-01 6.81297898e-01 2.59911418e-01
      2.85701286e-02 0. 3.29655915e-01 2.48021763e-02 5.26133627e-02 0.
      9.98268500e-02 7.21232966e-02 1.01917908e-01 0. 3.49019587e-01
      5.35155348e-02 7.90807605e-02 0. 4.43674847e-02 1.75377876e-02
      1.24010881e-02 2.39215672e-01</_>
    <_>
      0. 1.80117294e-01 1.30065352e-01 9.50907841e-02 3.30809474e-01
      5.16186953e-01 1.61657345e+00 1.45404291e+00 1.75896502e+00
      6.49605274e-01 2.77752072e-01 0. 1.66772187e-01 1.01989068e-01
      2.01181829e-01 4.33151387e-02 2.94442177e-01 2.68140525e-01
      1.95391893e-01 3.61550748e-02 5.32040179e-01 3.14596444e-01
      9.98204350e-01 7.43763864e-01 1.69622827e+00 1.52212918e+00
      1.63484478e+00 7.33670831e-01 4.20044363e-01 4.34096545e-01
      1.82466418e-01 3.18059832e-01</_>
    <_>
      0. 2.48021763e-02 8.76889378e-02 0. 9.75943506e-02 1.67315617e-01
      8.95042866e-02 4.38444689e-02 4.04328823e-01 5.71402572e-02
      2.70755231e-01 1.30765617e-01 4.81561065e-01 8.76889378e-02
      2.45638281e-01 1.61043122e-01 6.23529375e-01 9.81706381e-02
      3.06163788e-01 2.51102895e-02 7.42024958e-01 9.36379254e-01
      1.43072999e+00 2.14146450e-01 1.16408205e+00 3.04357171e-01
      1.54583350e-01 4.78688441e-02 4.99134213e-02 4.04460952e-02 0.
      2.47058809e-01</_>
    <_>
      0. 5.71195781e-02 4.04460952e-02 1.96078420e-02 2.88388610e-01
      7.55216703e-02 4.96043526e-02 3.55113111e-02 2.87688911e-01
      5.71994148e-02 8.24674368e-02 0. 7.76430964e-02 4.38444689e-02
      4.09505367e-02 0. 2.86470085e-01 5.83215542e-02 6.33125752e-02
      1.96078420e-02 1.10918708e-01 2.04142094e-01 1.61424905e-01
      9.48765948e-02 1.86159277e+00 8.63817215e-01 1.00973213e+00
      5.55810571e-01 5.87214887e-01 2.65116900e-01 1.11764446e-01
      3.57141495e-01</_>
    <_>
      2.77296752e-02 1.57600850e-01 1.98832065e-01 1.96078420e-02
      2.72101462e-01 2.38732204e-01 4.69775438e-01 1.26147181e-01
      1.18927789e+00 1.19739068e+00 2.15102339e+00 8.09367299e-01
      2.02825379e+00 8.64981890e-01 9.72436607e-01 7.10448101e-02
      7.02560604e-01 2.00183168e-01 1.86118871e-01 3.06284279e-02
      2.55112976e-01 1.54780924e-01 5.71402572e-02 0. 2.98256397e-01
      1.46808013e-01 7.74421841e-02 1.22535847e-01 2.30222300e-01
      1.24736659e-01 8.81436467e-02 6.54901922e-01</_>
    <_>
      5.54593503e-02 6.57733902e-02 8.42487365e-02 3.61550748e-02
      2.10745499e-01 2.40669221e-01 1.10491887e-01 4.72219363e-02
      5.46071708e-01 3.38173389e-01 1.42213941e-01 0. 1.16858780e-01
      8.96192566e-02 0. 2.77296752e-02 2.28054225e-01 4.96884212e-02
      1.42196566e-01 1.96078420e-02 8.87349695e-02 1.28135026e-01
      5.71994148e-02 3.16166952e-02 1.08716917e+00 7.98272967e-01
      1.16496837e+00 5.99664748e-01 8.07897806e-01 2.75461435e-01
      2.48021763e-02 4.59668636e-01</_>
    <_>
      2.38539688e-02 4.59204689e-02 3.50755751e-02 0. 2.58864820e-01
      3.16505641e-01 8.68076161e-02 1.93159476e-01 1.02999115e+00
      1.34367585e+00 3.00105977e+00 1.10032511e+00 7.80493736e-01
      2.69087762e-01 1.79044202e-01 2.38539688e-02 2.19607830e-01
      3.23972404e-02 4.92149889e-02 2.51102895e-02 1.27556533e-01
      1.38834253e-01 2.41450965e-01 4.77079377e-02 5.17647028e-01
      1.81235209e-01 2.82926559e-01 2.51102895e-02 2.16750413e-01
      6.33125752e-02 7.71364123e-02 2.59019107e-01</_>
    <_>
      4.72219363e-02 5.71114160e-02 1.00402132e-01 5.57629168e-02
      1.47120848e-01 3.62459570e-01 1.09253585e+00 4.26936388e+00
      2.67957544e+00 4.17448699e-01 9.09455061e-01 1.19615898e-01
      6.65512234e-02 2.63066813e-02 6.09572530e-02 0. 1.41176462e-01
      1.42968968e-01 1.72431871e-01 0. 2.55814314e-01 3.61959010e-01
      1.17188263e+00 5.07854986e+00 2.95780039e+00 2.24579382e+00
      2.27718163e+00 5.60433328e-01 8.23892832e-01 2.56815940e-01
      9.05755684e-02 2.03921556e-01</_>
    <_>
      7.06970766e-02 1.06744610e-01 1.53015479e-01 3.92156839e-02
      3.27210158e-01 3.56630236e-01 5.18089235e-01 8.27476904e-02
      1.59367728e+00 1.86066225e-01 2.21194446e-01 5.02362698e-02
      1.22355863e-01 8.62627178e-02 1.45339936e-01 0. 2.01017156e-01
      8.69550779e-02 1.26292944e-01 0. 1.69348106e-01 1.13995619e-01
      1.42818972e-01 5.89541011e-02 6.78725600e-01 6.47921383e-01
      2.64294052e+00 7.53892183e-01 6.49265170e-01 2.49367967e-01
      1.77496359e-01 4.23529387e-01</_>
    <_>
      0. 3.23972404e-02 8.76889378e-02 0. 1.49740249e-01 5.26133627e-02
      4.09712158e-02 0. 5.34579933e-01 1.65279984e-01 3.00576746e-01
      1.58742800e-01 2.66204804e-01 6.13822564e-02 1.24010881e-02 0.
      6.19607806e-01 0. 1.38804987e-01 0. 1.16464652e-01 7.89200440e-02
      1.24010881e-02 3.16166952e-02 8.84669721e-01 1.18138385e+00
      2.28551292e+00 4.34727401e-01 4.02569056e-01 3.55561733e-01
      3.55326414e-01 8.59659612e-01</_>
    <_>
      0. 3.61651964e-02 7.55217001e-02 0. 1.02725595e-01 2.83144563e-01
      7.96336234e-01 6.81206882e-01 7.33973312e+00 6.08702898e+00
      2.28058290e+00 2.12628409e-01 2.69722790e-01 2.86419868e-01
      1.23016514e-01 0. 2.62745082e-01 4.59069833e-02 7.40536153e-02
      2.51102895e-02 1.89020768e-01 3.37462038e-01 1.19268246e-01
      8.81632030e-01 4.74359322e+00 6.51096582e+00 6.32942200e-01
      1.89875007e-01 1.55286193e-01 1.08785845e-01 3.23380828e-02
      1.84592411e-01</_>
    <_>
      2.38539688e-02 7.81744793e-02 1.56372190e-01 1.96078420e-02
      2.11139753e-01 2.25013539e-01 1.82763219e-01 1.34351686e-01
      1.82910037e+00 1.62428665e+00 4.81219411e-01 2.51537990e-02
      9.42809880e-02 4.92150709e-02 8.57696310e-02 0. 1.52941406e-01
      9.33055133e-02 9.50316787e-02 5.58535308e-02 1.67061612e-01
      4.63736236e-01 1.00562561e+00 1.28199923e+00 6.81148243e+00
      3.38516617e+00 1.76590443e+00 4.38879550e-01 5.55381954e-01
      1.68670878e-01 1.40390739e-01 2.94442356e-01</_>
    <_>
      0. 0. 7.55216703e-02 1.96078420e-02 2.38475099e-01 1.21338293e-01
      3.04910809e-01 0. 1.62679601e+00 7.53274798e-01 9.35929358e-01
      9.47215140e-01 9.27313149e-01 7.89200440e-02 4.09505367e-02 0.
      1.92156851e-01 0. 2.63066813e-02 0. 1.71923965e-01 3.50755751e-02
      0. 7.10280314e-02 2.50980377e-01 1.99961532e-02 3.16772014e-02 0.
      1.08299330e-01 1.03748806e-01 0. 2.39459842e-01</_>
    <_>
      2.77297050e-02 9.81116071e-02 4.38444689e-02 1.96078829e-02
      3.44307631e-01 1.96757749e-01 4.22365963e-02 5.93653396e-02
      6.82632864e-01 3.03109139e-01 1.35079288e+00 2.01080012e+00
      4.16249037e-01 1.07115313e-01 7.82379285e-02 2.77297050e-02
      3.96079123e-01 5.71994185e-02 1.75378267e-02 3.62022445e-02
      1.33453384e-01 1.15967929e-01 9.81606543e-02 0. 2.00407550e-01
      1.96231544e-01 7.55217150e-02 1.39779299e-01 6.10054173e-02
      1.00402266e-01 1.99961886e-02 4.03922409e-01</_>
    <_>
      4.38444987e-02 5.71403615e-02 8.42195749e-02 2.21837834e-02
      8.31892788e-02 1.56414077e-01 1.36580169e-01 0. 5.92871487e-01
      3.71245950e-01 2.18241721e-01 6.45067096e-02 3.42262208e-01
      1.23086110e-01 4.96044569e-02 0. 2.15802133e-01 8.31871927e-02
      5.26135229e-02 5.54595608e-03 8.61591473e-02 1.40302449e-01
      2.48022508e-02 2.38539688e-02 5.96540272e-01 2.25885525e-01
      1.19214141e+00 7.53345430e-01 3.11422557e-01 1.33384675e-01
      2.48022415e-02 2.31697991e-01</_>
    <_>
      0. 2.11182926e-02 4.04042639e-02 0. 9.16144326e-02 4.04460989e-02
      3.23972404e-02 0. 8.23853910e-01 7.44065270e-02 1.06679118e+00
      4.42127377e-01 8.37435305e-01 1.01828352e-01 3.23972404e-02 0.
      3.99999976e-01 1.24010881e-02 8.76889378e-03 0. 9.98268425e-02
      8.76889378e-03 3.61550748e-02 0. 1.22126013e-01 0. 8.48364905e-02
      9.44461524e-02 0. 4.24182490e-02 5.23342378e-02 7.07661211e-02</_>
    <_>
      2.38539688e-02 4.09712158e-02 1.00360304e-01 0. 1.74850538e-01
      1.63359627e-01 2.79612452e-01 3.00714105e-01 3.15829515e+00
      3.81170660e-01 1.93336084e-01 4.47181314e-02 2.24807382e-01
      8.08921903e-02 5.83215542e-02 0. 4.13903654e-01 2.85494495e-02
      1.45612314e-01 0. 3.88717741e-01 4.38444689e-02 3.75158221e-01
      2.32731032e+00 3.81718969e+00 6.55210972e-01 5.26056349e-01
      5.34743071e-01 1.05372772e-01 7.02513605e-02 1.99961532e-02
      3.92156839e-02</_>
    <_>
      5.15801795e-02 1.23046763e-01 8.78379568e-02 5.02205789e-02
      3.08455527e-01 1.31872579e-01 1.73757806e-01 1.03208080e-01
      6.24374568e-01 1.56345844e+00 9.07266438e-01 1.13257658e+00
      7.97120094e-01 7.06933081e-01 1.57974601e-01 8.66585299e-02
      5.57420075e-01 6.20054416e-02 1.19324312e-01 1.59298986e-01
      1.08299330e-01 1.68520600e-01 9.83003825e-02 7.93088749e-02
      4.47533071e-01 6.17598891e-01 1.05136371e+00 4.24187392e-01
      3.92628789e-01 2.99337715e-01 2.10078374e-01 1.92156851e-01</_>
    <_>
      2.38539688e-02 1.24010881e-02 4.92149927e-02 0. 4.99134175e-02
      3.16772014e-02 3.61651927e-02 2.38539688e-02 2.47254461e-01
      1.15377747e-01 6.13822825e-02 1.71076462e-01 3.24480891e-01
      2.19914421e-01 1.22887306e-01 0. 4.91212070e-01 4.09505367e-02
      2.10602477e-01 1.20042115e-01 7.60648131e-01 5.66202104e-01
      9.02441263e-01 2.21273303e+00 2.10762620e+00 3.60996753e-01
      1.81159019e-01 0. 3.22409034e-01 1.05226763e-01 5.71995117e-02
      4.84062046e-01</_>
    <_>
      2.77296752e-02 4.09712158e-02 7.55216703e-02 7.53465593e-02
      2.16642067e-01 6.01071775e-01 1.17904651e+00 9.70719397e-01
      2.80025053e+00 6.11150146e-01 2.40662515e-01 6.13124706e-02
      9.42809135e-02 5.79839759e-02 4.47391719e-02 2.38539688e-02
      1.52941197e-01 1.24011021e-02 0. 0. 1.56211630e-01 3.98709327e-01
      9.00478065e-01 1.28917742e+01 2.60015750e+00 1.66775286e-01
      3.16353701e-02 1.96078420e-02 8.31890404e-02 8.62627178e-02
      1.99961532e-02 2.07843184e-01</_>
    <_>
      2.38539986e-02 6.09673969e-02 1.30065396e-01 1.44749582e-01
      6.22073174e-01 3.63171786e-01 9.92004216e-01 1.01278377e+00
      2.78103065e+00 8.94123614e-01 4.38966095e-01 1.83537632e-01
      3.91554087e-01 6.67528138e-02 7.33093545e-02 0. 9.01962817e-02
      1.61690414e-02 2.28664763e-02 5.54595608e-03 2.77297180e-02
      5.26133887e-02 1.14410259e-01 2.38539688e-02 3.70054185e-01
      1.49642611e+00 1.95418334e+00 6.00566626e-01 1.22289136e-01
      1.97182760e-01 4.85663116e-02 3.84314179e-01</_>
    <_>
      0. 2.48021763e-02 3.16772051e-02 0. 4.99134213e-02 1.07115209e-01
      1.34191096e-01 5.50418347e-02 3.26414585e-01 1.97468698e-01
      6.52151763e-01 4.87793744e-01 5.50174832e-01 7.21232966e-02
      1.24010881e-02 2.38539688e-02 3.96078408e-01 3.72032635e-02
      3.50755751e-02 0. 2.10745499e-01 4.92149889e-02 6.58574626e-02 0.
      4.47058797e-01 1.24010881e-02 1.05226725e-01 0. 1.66378058e-02
      2.29083095e-02 2.85701286e-02 4.15686250e-01</_>
    <_>
      1.30904809e-01 3.86625528e-01 8.78496543e-02 0. 1.22010589e-01
      1.30055457e-01 1.58020094e-01 1.89862370e-01 2.91626334e-01
      1.02976657e-01 1.44204766e-01 2.01045439e-01 2.39570647e-01
      1.82660013e-01 3.14298838e-01 1.06601663e-01 4.71571773e-01
      3.05599213e-01 1.01947248e-01 1.14546552e-01 3.05814683e-01
      5.16432643e-01 6.46769226e-01 8.29136193e-01 3.58549738e+00
      1.82620406e+00 9.44056034e-01 2.37084463e-01 5.78654587e-01
      4.29316044e-01 4.12681371e-01 4.12333369e-01</_>
    <_>
      5.15836440e-02 1.68897510e-01 2.12827310e-01 8.94362628e-02
      3.33473146e-01 4.55109924e-01 6.39614642e-01 2.52979040e-01
      5.11056244e-01 3.43103051e-01 1.73951626e-01 5.88235259e-02
      2.71750808e-01 1.98832095e-01 1.72661230e-01 1.43123820e-01
      3.13725471e-01 1.82724640e-01 1.30107179e-01 5.88235259e-02
      3.10923070e-01 4.37984765e-01 8.60639036e-01 5.22729993e-01
      2.66920280e+00 7.96503067e-01 5.33083022e-01 1.73391461e-01
      1.55286178e-01 2.74353713e-01 3.71512502e-01 3.06531459e-01</_>
    <_>
      0. 2.48021763e-02 1.21338330e-01 3.62022035e-02 1.74894169e-01
      1.79322377e-01 1.84024274e-01 5.54706939e-02 5.97609818e-01
      1.04581976e+00 1.51976550e+00 1.42112243e+00 2.23264050e+00
      1.35251617e+00 8.26751173e-01 1.54245242e-01 7.98209786e-01
      6.09082133e-02 8.76891986e-03 0. 4.99134585e-02 4.92149927e-02
      1.24010881e-02 0. 1.96403101e-01 3.55262846e-01 6.38793766e-01
      5.30096650e-01 8.27998698e-01 6.01513863e-01 3.59081686e-01
      3.81923378e-01</_>
    <_>
      0. 4.47391719e-02 3.50755751e-02 0. 3.43848020e-01 0.
      3.99923064e-02 0. 3.41176450e-01 1.61690414e-02 8.82348716e-02
      3.06284279e-02 4.43674847e-02 1.75377876e-02 2.48021763e-02 0.
      1.05882347e-01 0. 1.41394157e-02 2.51102895e-02 1.10918703e-02 0.
      3.72032635e-02 0. 4.74509776e-01 6.96001232e-01 1.06677520e+00
      6.23693943e-01 1.44194305e-01 6.67109415e-02 2.48021763e-02
      5.37254870e-01</_>
    <_>
      0. 2.85701286e-02 1.44246578e-01 1.96078420e-02 1.63802147e-01
      1.35477707e-01 6.96845725e-02 0. 1.60784304e-01 7.23303854e-02
      1.25914395e+00 4.64552552e-01 2.10745484e-01 1.57840058e-01 0. 0.
      7.05882311e-01 1.47715822e-01 1.66608945e-01 0. 4.74768907e-01
      2.96674252e-01 2.74460822e-01 1.07054308e-01 7.66539156e-01
      3.26951861e-01 3.73745054e-01 4.78688441e-02 3.41228604e-01
      1.90063193e-01 1.88687041e-01 4.90474761e-01</_>
    <_>
      0. 1.61690414e-02 5.79839535e-02 5.54595608e-03 2.38934189e-01
      1.19366184e-01 6.57733902e-02 2.39523187e-01 2.54264927e+00
      3.14364862e+00 5.37733853e-01 7.78947026e-02 1.83474943e-01
      1.75538838e-01 5.33723719e-02 0. 2.94117659e-01 4.09712158e-02
      4.24182490e-02 1.96078420e-02 1.16464660e-01 1.07157119e-01
      2.58270264e-01 2.45301709e-01 1.08200073e+00 3.63995701e-01
      3.67180586e-01 1.12187453e-01 2.75414675e-01 1.52848199e-01 0.
      2.59311199e-01</_>
    <_>
      0. 0. 6.67527765e-02 0. 9.42809135e-02 2.63066813e-02
      1.61690414e-02 0. 9.32517350e-01 3.04612547e-01 2.54959792e-01
      6.44159317e-01 1.14223206e+00 2.09502041e-01 2.48021763e-02 0.
      2.55226493e-01 2.48021763e-02 1.75377876e-02 0. 3.88215482e-02
      8.76889378e-03 2.48021763e-02 0. 3.21568608e-01 5.71402609e-02 0.
      0. 6.10052906e-02 2.63066813e-02 8.31237286e-02 2.23529398e-01</_>
    <_>
      0. 9.81955454e-02 1.61658868e-01 3.92156839e-02 2.08126113e-01
      1.82827726e-01 1.34155467e-01 1.65969312e-01 6.15562379e-01
      1.16960657e+00 5.68843782e-01 3.59932810e-01 1.22361235e-01
      2.27252543e-01 1.98600888e-01 7.06970766e-02 2.00391173e-01
      1.05655059e-01 1.33355930e-01 0. 3.58763129e-01 2.61731595e-01
      2.90691555e-01 1.38731018e-01 1.04368949e+00 1.19372559e+00
      1.78706539e+00 9.49126184e-01 1.46359599e+00 6.92262411e-01
      3.38434398e-01 6.64080739e-01</_>
    <_>
      7.54376128e-02 7.82585517e-02 8.28643441e-02 0. 3.16118211e-01
      2.00216472e-01 3.90604883e-01 7.06970766e-02 2.77389956e+00
      1.06757510e+00 2.18592834e+00 7.24669039e-01 4.57645983e-01
      3.43036801e-01 1.16643116e-01 0. 4.86274481e-01 4.96043526e-02
      1.68741822e-01 0. 8.87349695e-02 1.61945105e-01 1.05706535e-01
      2.38539688e-02 1.16535509e+00 6.44694269e-01 3.88378441e-01
      1.39664412e-01 1.91882461e-01 7.55216703e-02 3.35193798e-02
      1.84313715e-01</_>
    <_>
      0. 2.11182926e-02 5.79838865e-02 1.96078420e-02 1.10918716e-01
      1.24736659e-01 1.56517103e-01 1.22579761e-01 1.22714543e+00
      4.84247327e-01 2.42676497e-01 6.43259734e-02 2.50311792e-01
      2.02188611e-01 1.22952163e-01 0. 1.56862736e-01 2.48021763e-02
      3.16772014e-02 0. 7.25561604e-02 5.79420514e-02 4.47983295e-02
      2.64866054e-01 2.06805062e+00 3.75376773e+00 1.54972458e+00
      1.50205746e-01 4.82703894e-01 1.75377876e-02 3.23380828e-02
      2.43137240e-01</_>
    <_>
      0. 6.08818009e-02 4.74035628e-02 0. 9.42809135e-02 6.13822564e-02
      6.08875304e-02 0. 1.17815590e+00 1.36482552e-01 1.36435878e+00
      6.97962761e-01 6.73984349e-01 1.61535785e-01 2.48021763e-02 0.
      4.23773527e-01 0. 3.50755751e-02 0. 3.62021588e-02 0.
      3.35193798e-02 4.72219363e-02 1.64705873e-01 1.66627258e-01
      3.28513384e-01 2.45239794e-01 5.58534935e-02 4.57561128e-02
      4.47391719e-02 1.29411757e-01</_>
    <_>
      0. 8.20015892e-02 6.33544028e-02 0. 1.38955534e-01 1.79441050e-01
      1.13639343e+00 1.29732478e+00 4.74453449e+00 5.79018533e-01
      2.35154724e+00 7.94329345e-01 3.35726202e-01 1.80748388e-01
      7.81744793e-02 0. 1.68952003e-01 3.35193798e-02 3.16772014e-02 0.
      4.99134213e-02 8.76889378e-02 3.77130151e-01 3.43779236e-01
      2.54225636e+00 5.60713530e-01 6.11815929e-01 3.06284279e-02
      2.61421502e-01 1.25144869e-01 1.41930893e-01 1.99999988e-01</_>
    <_>
      0. 6.09082133e-02 1.10555418e-01 1.96078420e-02 2.92484760e-01
      3.47785920e-01 1.08987319e+00 1.53903711e+00 4.18141937e+00
      1.26978171e+00 4.78129297e-01 1.06681541e-01 3.78114283e-01
      1.37449846e-01 1.10596634e-01 2.77296752e-02 2.07843125e-01
      5.33723049e-02 1.00402132e-01 5.57387173e-02 1.74803436e-01
      1.57840088e-01 1.86643660e-01 3.62045437e-01 1.05327356e+00
      5.52798927e-01 8.32608402e-01 1.34154394e-01 1.52594700e-01
      8.42487291e-02 1.24010881e-02 2.19607830e-01</_>
    <_>
      0. 8.59127715e-02 7.89200440e-02 5.02362698e-02 2.19469562e-01
      1.10597245e-01 4.29444611e-01 3.16670179e-01 1.19525409e+00
      1.72840416e+00 1.75865102e+00 0. 1.02796875e-01 5.79838827e-02
      1.56492189e-01 3.16166952e-02 1.64705873e-01 1.15377747e-01
      2.12508410e-01 0. 1.91441238e-01 2.16392204e-01 4.11589473e-01
      2.93008208e-01 3.49516439e+00 1.29116595e+00 6.28996789e-01
      1.56921178e-01 4.82496470e-01 2.03974769e-01 9.92927700e-02
      2.04246119e-01</_>
    <_>
      0. 8.20721835e-02 1.14541546e-01 7.84313679e-02 2.77690798e-01
      1.63756534e-01 1.30711108e-01 5.87584436e-01 9.11519825e-01
      2.47865057e+00 2.42319679e+00 6.21624768e-01 1.88561767e-01
      1.75881937e-01 1.24010881e-02 4.33151387e-02 3.25490177e-01
      1.24010881e-02 7.55216703e-02 0. 2.02623680e-01 1.56413853e-01
      5.59914410e-01 6.78832531e-01 3.09318256e+00 8.96774650e-01
      7.99064636e-01 3.43783766e-01 3.67540151e-01 2.39005476e-01
      9.92087051e-02 2.15686262e-01</_>
    <_>
      0. 0. 7.20209554e-02 0. 1.19391203e-01 2.15920880e-01
      1.37124866e-01 2.77296752e-02 1.87553406e+00 7.01353490e-01
      9.07037735e-01 3.61550748e-02 3.30574363e-01 2.16215104e-01
      1.76387817e-01 9.87446979e-02 3.17971647e-01 2.85701286e-02
      4.04460989e-02 3.61550748e-02 2.64261812e-01 1.94906637e-01
      4.12376970e-01 5.52244902e-01 2.02583456e+00 3.04797530e+00
      1.31516027e+00 4.63331193e-01 1.25279462e+00 2.73088932e-01
      1.61690414e-02 1.06206939e-01</_>
    <_>
      0. 2.48021763e-02 6.67527765e-02 0. 2.85741419e-01 1.98286116e-01
      1.77383184e-01 0. 1.71845603e+00 4.60088551e-01 3.51450592e-01
      1.96078420e-02 5.49441874e-01 1.15907259e-01 1.03060730e-01 0.
      7.05882311e-02 1.24010881e-02 1.41394157e-02 0. 5.83246537e-02
      2.33877078e-01 7.70481527e-02 6.16032302e-01 9.43305016e-01
      1.92507792e+00 1.09915233e+00 5.27593084e-02 5.54593578e-02
      6.67527765e-02 1.24010881e-02 1.68627441e-01</_></uncompressed_support_vectors>
  <decision_functions>
    <_>
      <sv_count>1</sv_count>
      <rho>-2.9358021418907869e+00</rho>
      <alpha>
        1.</alpha>
      <index>
        0</index></_></decision_functions></opencv_ml_svm>
</opencv_storage>
