<?xml version="1.0"?>
<opencv_storage>
<opencv_ml_svm>
  <format>3</format>
  <svmType>C_SVC</svmType>
  <kernel>
    <type>LINEAR</type></kernel>
  <C>1.</C>
  <term_criteria><epsilon>1.0000000000000000e-02</epsilon>
    <iterations>1000</iterations></term_criteria>
  <var_count>32</var_count>
  <class_count>2</class_count>
  <class_labels type_id="opencv-matrix">
    <rows>2</rows>
    <cols>1</cols>
    <dt>i</dt>
    <data>
      -1 1</data></class_labels>
  <sv_total>1</sv_total>
  <support_vectors>
    <_>
      -2.52189893e-05 1.26456514e-01 2.12526441e-01 -2.93830276e-01
      -1.03448808e+00 -5.08272573e-02 6.62257910e-01 -6.61359966e-01
      -1.76096126e-01 -6.61209300e-02 1.93794340e-01 -1.36433423e-01
      6.26207829e-01 3.95704806e-01 4.59873378e-01 2.97965944e-01
      8.77676755e-02 7.29114413e-01 6.56535029e-01 -2.02647805e+00
      -1.63931715e+00 -1.54575300e+00 4.90922183e-01 8.56501013e-02
      -3.90915543e-01 2.75381476e-01 8.28254819e-01 1.64439991e-01
      -5.70142865e-02 -2.49507576e-01 -4.04143661e-01 -6.27378702e-01</_></support_vectors>
  <uncompressed_sv_total>48</uncompressed_sv_total>
  <uncompressed_support_vectors>
    <_>
      5.54706641e-02 5.48708856e-01 4.48053628e-01 1.47329748e-01
      4.17417765e-01 2.05665648e-01 2.99361080e-01 3.00227582e-01
      5.07260203e-01 5.83018698e-02 3.70477252e-02 1.96078420e-02
      2.21837405e-02 4.38444689e-02 4.47391681e-02 0. 2.86981702e-01
      2.85701286e-02 1.97447538e-01 1.69355512e-01 5.63148677e-01
      1.93563092e+00 1.65345430e+00 1.26307857e+00 7.45168686e-01
      5.48601806e-01 1.64915055e-01 1.91475391e-01 2.18765974e-01
      9.64578316e-02 3.62336457e-01 4.12875235e-01</_>
    <_>
      1.62154362e-01 1.67892113e-01 1.51259816e+00 1.05256879e+00
      1.44149172e+00 9.90689397e-01 3.75216424e-01 1.26086682e-01
      6.86553240e-01 1.97553754e-01 9.30176228e-02 1.02960698e-01
      1.25374764e-01 1.29882693e-01 2.30365828e-01 2.77296752e-02
      2.47523248e-01 8.95375013e-02 2.39782274e-01 9.19180140e-02
      3.54939878e-01 3.10855627e-01 5.55938840e-01 2.72589058e-01
      1.57032990e+00 3.87052327e-01 2.44441986e-01 3.92156839e-02
      3.78918529e-01 2.72381544e-01 2.56197423e-01 4.95009780e-01</_>
    <_>
      2.38539688e-02 1.40314847e-01 1.65324405e-01 3.06284279e-02
      8.90856162e-02 1.46083355e-01 1.61690414e-02 0. 2.27450967e-01
      3.23972404e-02 1.41394157e-02 1.34244978e-01 7.50671923e-02
      4.74035628e-02 1.24010881e-02 0. 3.10021102e-01 1.24010881e-02
      7.01511502e-02 1.30765647e-01 1.47213149e+00 5.88949502e-01
      1.00824095e-01 0. 3.60784292e-01 0. 0. 0. 6.10052906e-02
      3.50755751e-02 3.61651964e-02 1.41455159e-01</_>
    <_>
      9.54281688e-02 2.25163907e-01 1.61742702e-01 1.14124782e-01
      4.13671434e-01 2.54844218e-01 4.73940402e-01 1.38774410e-01
      8.86520028e-01 1.44091263e-01 2.98807532e-01 6.39754087e-02
      1.80440187e-01 1.39036909e-01 3.77157509e-01 7.54376799e-02
      4.12260950e-01 2.66846389e-01 4.39872384e-01 6.66729987e-01
      8.98228705e-01 1.10357261e+00 3.96612555e-01 2.77297106e-02
      4.94641244e-01 1.05765760e-01 2.91453242e-01 6.13560416e-02
      2.83150166e-01 2.00365603e-01 2.16541335e-01 4.15965348e-01</_>
    <_>
      8.70760754e-02 2.68791288e-01 3.47890615e-01 1.17202006e-01
      7.17972457e-01 1.91979337e+00 2.04839897e+00 2.20456362e+00
      2.59429455e+00 1.36706150e+00 4.24934417e-01 1.42326564e-01
      3.55887562e-01 9.30176675e-02 1.66555583e-01 9.87765566e-02
      2.98559368e-01 2.49578863e-01 2.62115479e-01 1.22560047e-01
      6.39728487e-01 1.02255595e+00 2.53251362e+00 6.24492979e+00
      3.94750142e+00 6.87837601e-01 2.62073696e-01 1.61250561e-01
      2.75530756e-01 1.52955011e-01 1.85289621e-01 2.15686262e-01</_>
    <_>
      0. 4.96044345e-02 1.07157066e-01 3.06997336e-02 2.94328690e-01
      2.88244724e-01 1.24580765e+00 2.33974361e+00 2.08689737e+00
      1.97974011e-01 1.38834298e-01 2.77297180e-02 1.66378081e-01
      6.13822974e-02 0. 0. 8.62745047e-02 1.24010881e-02 3.50755751e-02
      0. 1.60832107e-01 2.14356020e-01 9.28734183e-01 1.60225201e+00
      2.04035902e+00 3.43285501e-01 2.59966552e-01 1.10918917e-02
      1.83015838e-01 6.13822825e-02 5.34563735e-02 1.49019599e-01</_>
    <_>
      0. 2.48021763e-02 1.61658883e-01 0. 1.97006479e-01 3.74080181e-01
      7.67280042e-01 4.34641987e-01 1.19417620e+00 3.53403121e-01
      1.77349985e-01 4.47181314e-02 1.44194320e-01 1.23249933e-01
      1.29470646e-01 5.15836440e-02 3.53219867e-01 1.35434747e-01
      4.40972477e-01 3.91542077e-01 7.79683471e-01 1.13536370e+00
      1.51131105e+00 3.17283511e-01 8.31929922e-01 2.09889412e-01
      2.07475483e-01 1.96078420e-02 1.94107696e-01 1.10555410e-01
      9.81706381e-02 2.94117630e-01</_>
    <_>
      0. 1.40348062e-01 2.46074885e-01 1.96078420e-02 4.16339189e-01
      3.93495351e-01 2.79596120e-01 7.54376724e-02 5.30304968e-01
      1.19145699e-01 2.15823919e-01 0. 1.99653611e-01 1.12569399e-01
      1.15520976e-01 0. 7.57404447e-01 1.18060566e-01 5.67895353e-01
      4.46192294e-01 9.51056719e-01 4.58730400e-01 3.15631539e-01
      2.38539688e-02 3.41176450e-01 1.72745302e-01 2.49431416e-01 0.
      2.85812706e-01 1.94887787e-01 6.20895103e-02 3.68627429e-01</_>
    <_>
      0. 1.61690693e-02 4.38444689e-02 3.61550748e-02 2.49567077e-01
      6.32938966e-02 5.33723645e-02 0. 3.96078408e-01 4.09712456e-02
      7.89200440e-02 1.96078420e-02 2.66204804e-01 1.05226725e-01
      2.85701565e-02 0. 6.23529375e-01 1.61690693e-02 1.49468765e-01
      3.77949804e-01 7.97681510e-01 4.70472693e-01 2.91727245e-01
      2.77297106e-02 3.17647070e-01 4.47391979e-02 6.13822825e-02 0.
      1.33102491e-01 4.38444689e-02 5.71196340e-02 3.64705861e-01</_>
    <_>
      3.94112729e-02 1.22972898e-01 2.82916278e-01 6.54224455e-01
      1.46893334e+00 9.43378687e-01 1.72577217e-01 4.38444689e-02
      6.35573566e-01 1.61690414e-02 1.75378267e-02 0. 1.27556592e-01
      3.16772051e-02 1.99961830e-02 0. 1.37254953e-01 1.45242468e-01
      2.63939500e-01 2.15774715e-01 5.02991498e-01 4.20032948e-01
      2.38306060e-01 9.87858027e-02 5.64706564e-01 3.72873321e-02
      1.47645086e-01 1.10919122e-02 1.88561857e-01 5.79839647e-02
      5.71403317e-02 4.55181271e-01</_>
    <_>
      2.38539986e-02 4.09712903e-02 6.67529106e-02 2.51538232e-02
      1.66378275e-01 4.92150709e-02 1.03060849e-01 4.77079675e-02
      4.78431821e-01 1.30651936e-01 1.80748463e-01 0. 2.96904743e-01
      1.65182874e-01 9.92087796e-02 0. 4.31373060e-01 2.50825733e-01
      4.34166253e-01 2.57198989e-01 1.28584957e+00 8.92682135e-01
      6.84397340e-01 2.28836507e-01 8.16531479e-01 1.96202427e-01
      1.19295128e-01 5.54595608e-03 1.88561946e-01 1.44246727e-01
      4.85663116e-02 2.70588666e-01</_>
    <_>
      0. 8.19135904e-02 5.79420514e-02 2.51102895e-02 4.05428559e-01
      1.01786524e-01 1.82842940e-01 0. 5.18250287e-01 1.76285952e-01
      1.92915618e-01 0. 2.27383271e-01 8.08921903e-02 0. 0.
      2.47058809e-01 7.94398487e-02 5.61607555e-02 2.29071021e-01
      2.58740872e-01 9.12852705e-01 3.08197349e-01 8.32192525e-02
      8.48738015e-01 1.79179266e-01 6.87249303e-02 1.96078420e-02
      8.31890330e-02 5.79838865e-02 3.72032635e-02 1.64705873e-01</_>
    <_>
      1.46012500e-01 1.10561602e-01 2.98657753e-02 0. 7.00525865e-02
      8.76889378e-03 7.70772547e-02 0. 6.43737018e-01 5.83080724e-02
      3.86346690e-02 0. 1.13888755e-01 7.89200440e-02 1.24010881e-02 0.
      3.25490177e-01 7.44905993e-02 9.47939306e-02 2.19297230e-01
      5.16764641e-01 2.98797488e-01 2.85494495e-02 0. 6.78755879e-01 0.
      2.63066813e-02 0. 5.54593578e-02 1.75377876e-02 6.96005076e-02
      3.26139301e-01</_>
    <_>
      1.46513581e-01 2.80875295e-01 4.99015123e-01 8.73746514e-01
      2.33681846e+00 1.83926892e+00 5.30190885e-01 1.85394660e-01
      1.01202703e+00 2.28797808e-01 1.14156343e-01 3.06284279e-02
      1.30526558e-01 1.17888190e-01 5.33723049e-02 0. 1.68627441e-01
      6.57733902e-02 1.35477692e-01 5.28122932e-02 2.14174554e-01
      1.84633359e-01 7.46338293e-02 0. 2.20420748e-01 4.85071242e-02
      7.20209554e-02 3.06284744e-02 2.52859950e-01 1.47573888e-01
      4.96043526e-02 5.25490224e-01</_>
    <_>
      0. 2.11182926e-02 5.11453077e-02 0. 1.13888748e-01 1.15967765e-01
      2.38518700e-01 0. 5.76470554e-01 2.85701286e-02 3.16772014e-02 0.
      9.17050093e-02 3.16772051e-02 6.09082095e-02 2.38539688e-02
      3.26583594e-01 1.42775565e-01 3.91913027e-01 3.87146294e-01
      1.18730509e+00 9.02974308e-01 4.92743045e-01 4.77079973e-02
      8.19607794e-01 5.46376742e-02 4.74036187e-02 0. 2.21837405e-02
      2.63066813e-02 1.24010881e-02 1.92156851e-01</_>
    <_>
      0. 4.09505367e-02 5.79838865e-02 8.64377022e-02 1.19434685e-01
      8.62627178e-02 3.23972404e-02 5.15836440e-02 6.66910768e-01
      3.23380828e-02 1.54441714e-01 0. 9.42808986e-02 1.85997888e-01
      1.24010881e-02 0. 6.86491668e-01 8.70152265e-02 1.26857921e-01
      3.65420938e-01 9.61361647e-01 1.03644288e+00 1.51544601e-01
      5.15801795e-02 4.20256913e-01 0. 8.76889378e-02 5.88235259e-02
      8.90856162e-02 4.38444689e-02 1.24010881e-02 3.96402955e-01</_>
    <_>
      0. 4.85662855e-02 6.27004325e-01 7.89259791e-01 2.85712767e+00
      1.18699121e+00 2.69600034e-01 0. 9.38005269e-01 8.20015967e-02
      1.24736667e-01 2.51102895e-02 2.38475159e-01 7.89200440e-02
      6.57733902e-02 0. 3.84313703e-01 2.17341587e-01 1.65676937e-01
      1.42847449e-01 2.25085884e-01 2.79359311e-01 8.09043646e-02
      2.38539688e-02 3.45098019e-01 5.83215579e-02 2.82788314e-02 0.
      1.38648376e-01 8.42905641e-02 9.80826318e-02 4.78755891e-01</_>
    <_>
      0. 5.33723049e-02 1.22764513e-01 0. 2.58039534e-01 1.91489398e-01
      1.46716237e-01 0. 1.18823314e+00 6.20054416e-02 7.89200440e-02 0.
      1.16464652e-01 1.75377876e-02 0. 0. 9.80392098e-02 0.
      1.75377876e-02 0. 1.49740264e-01 1.75377876e-02 1.24010881e-02 0.
      7.52941132e-01 6.57733902e-02 6.13822564e-02 0. 7.20971599e-02
      4.04460952e-02 4.09712158e-02 1.88235283e-01</_>
    <_>
      2.77296752e-02 2.20084697e-01 2.68395424e-01 0. 6.82149887e-01
      4.65050638e-01 3.65515143e-01 3.16166952e-02 1.00784302e+00
      1.27922058e-01 1.31533399e-01 5.02205789e-02 1.77469894e-01
      1.19366191e-01 1.21875577e-01 0. 2.74509788e-01 7.33353272e-02
      1.26605421e-01 1.31242618e-01 6.07257485e-01 1.98275268e+00
      1.36208916e+00 2.05320045e-01 3.61491591e-01 5.33723049e-02
      1.63549870e-01 0. 2.85741538e-01 8.76889378e-03 8.59128311e-02
      2.98039198e-01</_>
    <_>
      0. 2.48021763e-02 2.24650890e-01 2.20347345e-01 2.01455951e+00
      5.18185079e-01 1.91636527e+00 3.14126730e-01 5.17647028e-01
      2.48021763e-02 6.33544028e-02 1.96078774e-02 3.16118300e-01
      9.64578316e-02 2.48021763e-02 0. 4.59380895e-01 4.09712158e-02
      6.49414286e-02 2.77297180e-02 8.06078970e-01 5.44895530e-01
      5.83215579e-02 0. 2.98283339e-01 1.24010881e-02 4.38444689e-02 0.
      2.10745469e-01 6.67528212e-02 1.24010881e-02 2.70588219e-01</_>
    <_>
      0. 5.35155311e-02 4.69261467e-01 1.61858395e-01 9.12132502e-01
      9.12493646e-01 4.18936312e-01 1.22611612e-01 6.35294080e-01
      1.75330281e-01 2.14539364e-01 1.03533067e-01 2.41788387e-01
      2.82788314e-02 9.55800489e-02 6.71280026e-02 6.22734249e-01
      4.09712158e-02 1.64899752e-01 4.16868441e-02 1.16373110e+00
      7.36299872e-01 5.22930622e-01 1.69492409e-01 2.43415937e-01
      3.23380828e-02 8.82348642e-02 3.92156839e-02 5.54593578e-02
      8.96610916e-02 0. 5.02177954e-01</_>
    <_>
      0. 4.13369447e-01 4.96529937e-01 1.53779435e+00 1.98922038e+00
      7.37879038e-01 8.35715115e-01 1.65236998e+00 1.59805512e+00
      1.61857769e-01 1.40848219e-01 1.96078420e-02 1.27556518e-01
      8.76889378e-02 1.39101759e-01 6.32652417e-02 3.46390694e-01
      2.20161617e-01 2.07338288e-01 1.00518107e-01 2.38825753e-01
      6.33125752e-02 3.54227185e-01 5.01904249e-01 2.50899744e+00
      8.72088015e-01 3.49417955e-01 3.61550748e-02 2.33279869e-01
      2.09027156e-01 4.11144458e-02 3.69150281e-01</_>
    <_>
      2.77296752e-02 3.35193798e-02 5.62513947e-01 1.50154829e+00
      1.50600791e+00 9.64578316e-02 1.30418718e-01 0. 6.66666627e-01
      2.48021763e-02 1.30065352e-01 0. 2.38475129e-01 7.89200440e-02
      6.96005076e-02 0. 4.31616664e-01 1.45280764e-01 7.54505917e-02
      8.39675292e-02 1.47040188e-01 1.31843150e-01 0. 0. 1.06126495e-01
      0. 8.76889378e-03 0. 6.10052906e-02 6.67527765e-02 1.10512562e-01
      5.68871558e-01</_>
    <_>
      2.40421221e-01 2.89761126e-01 3.21876228e-01 4.08465236e-01
      6.08637094e-01 7.34900177e-01 9.05118823e-01 6.51973426e-01
      1.76779115e+00 1.39308190e+00 7.93500066e-01 4.88813192e-01
      8.74518871e-01 3.90468657e-01 3.10646683e-01 3.55113111e-02
      3.34242940e-01 2.39709929e-01 3.94160211e-01 2.34122291e-01
      4.87758994e-01 7.13121712e-01 9.51613843e-01 1.88342178e+00
      3.55007553e+00 1.06720185e+00 8.63830328e-01 4.29115981e-01
      4.17246044e-01 3.26875031e-01 2.56296962e-01 4.94987011e-01</_>
    <_>
      2.08908737e-01 6.09466918e-02 2.19561487e-01 2.60472268e-01
      4.89109278e-01 7.11999655e-01 2.21696401e+00 2.28116798e+00
      4.19076633e+00 4.46429521e-01 2.22909272e-01 3.92156839e-02
      4.99134213e-02 8.76889378e-03 0. 8.38335752e-02 4.31372523e-02
      5.33723049e-02 0. 0. 2.77296752e-02 8.42905641e-02 4.35852647e-01
      1.02324781e+01 4.58123493e+00 1.78652912e-01 4.09515887e-01
      2.51102895e-02 2.39945173e-01 1.50979578e-01 1.02937527e-01
      4.48002398e-01</_>
    <_>
      0. 9.92087647e-02 4.01964366e-01 7.69814014e-01 3.08389425e+00
      9.02114093e-01 6.82001233e-01 7.54376128e-02 1.77254796e+00
      9.43435207e-02 2.63066813e-02 0. 1.38955548e-01 2.28664763e-02
      3.61550748e-02 3.16166952e-02 9.83637720e-02 2.11182926e-02
      1.40600368e-01 2.51102895e-02 1.95196733e-01 1.96937010e-01
      1.38306201e-01 2.77296752e-02 1.01960868e-01 0. 8.76889378e-03
      5.54595608e-03 4.43674847e-02 4.38445099e-02 1.24010881e-02
      2.78431535e-01</_>
    <_>
      0. 5.71402609e-02 4.38444689e-02 6.98896796e-02 1.14420079e-01
      3.40938687e-01 1.49394602e-01 9.06358734e-02 3.62269491e-01
      1.83836535e-01 6.13822564e-02 5.88235259e-02 1.52710259e-01
      4.04460952e-02 6.09673709e-02 0. 2.07843125e-01 3.72032635e-02
      2.88982928e-01 1.14019074e-01 8.91747534e-01 1.03440309e+00
      1.54163516e+00 7.65940964e-01 2.46237326e+00 1.57818210e+00
      1.01111126e+00 4.13959354e-01 3.83929253e-01 2.05931202e-01
      3.35058942e-02 1.72549039e-01</_>
    <_>
      3.55113111e-02 8.68916884e-02 1.21286571e-01 2.25253209e-01
      7.26649642e-01 6.10797107e-01 6.57733902e-02 0. 3.76470566e-01 0.
      2.63066813e-02 0. 8.87349769e-02 2.63066813e-02 3.72032635e-02
      3.55113111e-02 1.56862736e-01 3.35193798e-02 1.82636842e-01
      6.43630400e-02 3.05026442e-01 2.77912796e-01 2.77173430e-01
      6.28675222e-02 8.58823478e-01 1.03106402e-01 1.01828352e-01
      3.61550748e-02 3.05026382e-01 6.67527765e-02 8.19424316e-02
      4.78755891e-01</_>
    <_>
      0. 0. 9.84299779e-02 0. 4.87020850e-01 3.25267732e-01
      1.75028056e-01 8.82641077e-01 1.22875595e+00 1.38087749e-01
      1.26472622e-01 2.51102895e-02 9.98268425e-02 2.63066813e-02
      3.72032635e-02 0. 2.66666651e-01 8.19424316e-02 1.21338293e-01 0.
      3.05026352e-01 2.56370246e-01 5.46922505e-01 7.58377314e-01
      1.45910358e+00 4.35478628e-01 1.12569399e-01 6.43259734e-02
      3.36821645e-01 1.17939912e-01 1.19145699e-01 2.62745082e-01</_>
    <_>
      0. 4.47391719e-02 1.09129190e-01 6.43259734e-02 7.83631086e-01
      9.59438205e-01 1.34504604e+00 1.43123820e-01 7.57465959e-01
      3.06102216e-01 2.38732263e-01 0. 5.54593578e-02 4.04460989e-02
      5.33723049e-02 0. 3.21568608e-01 2.28704259e-01 2.98646420e-01
      2.51102895e-02 7.53511190e-01 1.04830909e+00 1.27686024e+00
      2.61314452e-01 5.69230676e-01 1.72745317e-01 2.42634699e-01
      3.92156839e-02 1.99653640e-01 8.08921903e-02 1.61867887e-01
      1.13725483e-01</_>
    <_>
      0. 1.15461819e-01 2.97807962e-01 1.62365183e-01 5.19924343e-01
      4.57151264e-01 5.87774396e-01 1.10941336e-01 6.11764669e-01
      1.23056874e-01 8.42905641e-02 0. 1.44194305e-01 1.01828352e-01
      5.33723049e-02 0. 3.61387551e-01 1.02976657e-01 3.06030899e-01
      7.84313679e-02 7.59165645e-01 6.84784532e-01 5.46650648e-01
      7.54376128e-02 5.29411733e-01 5.23933955e-02 5.79838865e-02 0.
      1.44194305e-01 6.13822564e-02 3.72032635e-02 1.84313715e-01</_>
    <_>
      2.77296752e-02 1.14339679e-01 4.06937122e-01 1.05999187e-01
      9.48934495e-01 5.94314933e-01 5.28515160e-01 2.77296752e-02
      6.40060365e-01 2.10256696e-01 2.03737825e-01 1.01211295e-01
      3.44242066e-01 1.45672798e-01 1.66757986e-01 2.38539688e-02
      3.17647040e-01 1.88797057e-01 4.07866687e-01 2.79329360e-01
      7.44573534e-01 5.98516941e-01 5.70011318e-01 8.32003355e-02
      4.39982653e-01 1.56471521e-01 1.28680959e-01 2.51102895e-02
      1.69348076e-01 9.49798897e-02 4.85662818e-02 4.55443680e-01</_>
    <_>
      2.53503233e-01 1.14812529e+00 1.71145093e+00 7.96772957e-01
      1.10670650e+00 3.63009006e-01 1.97547480e-01 2.38539688e-02
      2.62745082e-01 1.93695456e-01 3.46637756e-01 5.88235259e-02
      4.25682634e-01 4.70970094e-01 5.50862551e-01 4.31604415e-01
      9.82510746e-01 4.22756702e-01 1.12380850e+00 3.93349826e-01
      9.03866112e-01 5.55512547e-01 4.10030186e-01 0. 1.92481413e-01
      5.33723049e-02 6.87249303e-02 0. 4.43674847e-02 5.79838865e-02
      1.10571720e-01 4.43415940e-01</_>
    <_>
      0. 1.15377747e-01 1.84692651e-01 0. 3.52320492e-01 1.57840058e-01
      3.77744585e-01 4.77079377e-02 7.41176426e-01 1.09474495e-01
      7.55216703e-02 1.96078420e-02 1.99653640e-01 1.42274439e-01
      1.56348959e-01 0. 3.72548997e-01 8.20856616e-02 2.49633968e-01
      7.84313679e-02 7.30815113e-01 7.89336443e-01 7.40445554e-01 0.
      4.62745070e-01 5.33723049e-02 1.68581098e-01 0. 1.66378021e-01
      1.19366139e-01 6.20054416e-02 2.15686262e-01</_>
    <_>
      0. 2.62173831e-01 4.54221755e-01 1.56862736e-01 6.41146600e-01
      3.37666243e-01 2.41080448e-01 0. 5.61352968e-01 2.60122597e-01
      8.96610841e-02 4.47181314e-02 4.35553074e-01 2.76284039e-01
      2.78282225e-01 0. 5.17647028e-01 2.44737551e-01 2.68899530e-01
      1.03541657e-01 7.84297287e-01 7.49117970e-01 5.54685533e-01
      3.16166952e-02 2.70588219e-01 1.99071154e-01 6.67527765e-02
      6.98441118e-02 1.05372772e-01 2.21679881e-01 1.12959228e-01
      3.72548997e-01</_>
    <_>
      4.77079377e-02 1.18191697e-01 2.00145409e-01 7.84313679e-02
      5.91194749e-01 7.76975930e-01 3.17234099e-01 2.05320701e-01
      6.20428324e-01 3.65519434e-01 1.47645012e-01 3.37346084e-02
      3.52779508e-01 1.74497560e-01 1.51567847e-01 3.55113409e-02
      5.30256450e-01 2.45806649e-01 2.68870324e-01 1.67904779e-01
      1.00014412e+00 4.52221662e-01 9.08834696e-01 3.27968091e-01
      8.29430640e-01 3.63247931e-01 2.21294641e-01 3.37346084e-02
      2.91358590e-01 1.60316333e-01 4.85663116e-02 3.84313732e-01</_>
    <_>
      2.38539986e-02 1.22078106e-01 1.80748612e-01 1.10918917e-02
      3.02407354e-01 1.60358384e-01 2.88109958e-01 5.15837111e-02
      7.68953323e-01 3.91477078e-01 2.58242518e-01 8.09638724e-02
      2.66599447e-01 1.10597394e-01 7.81746060e-02 0. 5.37255585e-01
      1.28006250e-01 1.30107403e-01 1.42356902e-01 5.98133445e-01
      9.52594697e-01 5.04884660e-01 1.49914607e-01 6.36121869e-01
      1.48981303e-01 3.40821475e-01 4.17481177e-02 1.97332576e-01
      1.60358369e-01 3.72032635e-02 3.88235658e-01</_>
    <_>
      0. 1.21924624e-01 8.08922201e-02 0. 4.79562044e-01 1.91860676e+00
      1.24631763e+00 1.53496230e+00 1.44472075e+00 2.45855495e-01
      2.03749552e-01 1.22568518e-01 3.49393904e-01 8.61691758e-02
      6.85624331e-02 4.33151685e-02 2.35618696e-01 2.26545990e-01
      6.67109713e-02 3.06562465e-02 6.49400592e-01 4.11108524e-01
      9.58293080e-01 3.11633855e-01 1.09208870e+00 1.77908495e-01
      2.74764389e-01 5.02362885e-02 2.13672057e-01 6.13822825e-02
      1.35378152e-01 1.92156881e-01</_>
    <_>
      0. 1.27779022e-01 2.83122987e-01 1.96078829e-02 4.41493839e-01
      4.51704293e-01 4.12218511e-01 2.38539986e-02 6.82353735e-01
      4.96044643e-02 1.05226852e-01 1.10919122e-02 2.55113095e-01
      7.89201409e-02 2.85701584e-02 0. 3.60784680e-01 1.10655844e-01
      2.38841549e-01 1.61437556e-01 7.05123007e-01 5.81625462e-01
      5.12367845e-01 0. 4.27451581e-01 5.71994483e-02 1.75378267e-02
      5.54595608e-03 5.54593541e-02 0. 1.24010881e-02 2.00000316e-01</_>
    <_>
      6.71409518e-02 1.09275348e-01 3.90163571e-01 4.15782362e-01
      1.06577551e+00 1.59630156e+00 1.84606397e+00 1.61086857e+00
      2.35080171e+00 6.07024670e-01 2.98849046e-01 3.92156839e-02
      2.71750867e-01 8.42905939e-02 1.24010881e-02 0. 8.23529363e-02 0.
      4.38444950e-02 0. 7.06541479e-01 7.26405084e-01 3.79838872e+00
      4.85310793e-01 1.42712188e+00 3.53299707e-01 1.56372115e-01
      6.99154362e-02 2.21837506e-01 2.82788314e-02 6.47353232e-02
      2.12089315e-01</_>
    <_>
      0. 5.71994856e-02 1.79322273e-01 2.21837834e-02 3.36005777e-01
      4.19748813e-01 1.24046993e+00 2.42036438e+00 1.31826067e+00
      1.63856104e-01 1.35477811e-01 1.10918917e-02 6.10052906e-02
      1.01828381e-01 4.09712456e-02 0. 1.96078449e-01 1.07912451e-01
      1.24676213e-01 0. 3.24590862e-01 3.99209440e-01 7.12555885e-01
      1.65913835e-01 2.29283285e+00 4.05716896e-01 2.12888032e-01
      1.10918917e-02 1.05372883e-01 4.38444689e-02 3.61652225e-02
      1.17647111e-01</_>
    <_>
      0. 1.19229771e-01 8.08921978e-02 0. 3.13542396e-01 1.84468195e-01
      1.06803767e-01 5.54706641e-02 3.21812749e-01 7.33684599e-02
      2.32215121e-01 1.96078420e-02 1.60832092e-01 1.33505553e-01
      3.72032635e-02 0. 4.35294092e-01 5.33723049e-02 1.84146717e-01 0.
      8.42981517e-01 3.82432759e-01 1.97463408e-01 1.26506224e-01
      7.96769857e-01 1.14339679e-01 1.66608945e-01 0. 2.16291428e-01
      8.76889378e-03 0. 2.39215672e-01</_>
    <_>
      2.38539688e-02 3.61651964e-02 6.67527765e-02 0. 1.77469894e-01
      8.76889378e-02 2.85701286e-02 0. 3.21568608e-01 3.72032635e-02
      3.50755751e-02 0. 2.71750748e-01 5.26133627e-02 1.24010881e-02 0.
      3.60784292e-01 4.09712158e-02 3.05484951e-01 0. 7.15425551e-01
      4.86779153e-01 1.84919089e-01 0. 9.92156804e-01 5.83215542e-02
      1.42274439e-01 0. 1.83015823e-01 7.01511502e-02 4.96884212e-02
      3.68951976e-01</_>
    <_>
      0. 1.48897126e-01 4.04292405e-01 6.82944834e-01 1.82398951e+00
      1.05921078e+00 4.01670396e-01 0. 1.23192859e+00 6.20054416e-02
      5.45855165e-02 0. 1.83323026e-01 6.13822564e-02 3.23380828e-02 0.
      2.23819882e-01 2.93079227e-01 5.45436814e-02 8.39338154e-02
      1.60832122e-01 5.26133627e-02 5.46211265e-02 1.03167288e-01
      2.43137240e-01 8.47906396e-02 8.78379568e-02 0. 1.38648376e-01
      3.50755751e-02 1.07912429e-01 5.21568596e-01</_>
    <_>
      0. 1.39141858e-01 5.09535849e-01 9.83208776e-01 1.22904348e+00
      9.41201687e-01 8.87237549e-01 1.14805721e-01 1.47217035e+00
      8.96807238e-02 1.47644952e-01 0. 1.11312859e-01 8.76889378e-03
      9.06332880e-02 4.33151983e-02 3.18740517e-01 1.24010881e-02
      7.01512769e-02 7.29502887e-02 7.76431784e-02 1.75923795e-01
      3.07630837e-01 1.03167295e-01 1.30359101e+00 2.81965911e-01
      2.72306144e-01 2.51102895e-02 1.50090903e-01 1.41394157e-02
      6.95413500e-02 7.37254918e-01</_>
    <_>
      0. 1.24010881e-02 2.00358540e-01 1.96078420e-02 1.36029005e-01
      1.31682426e-01 2.84372956e-01 9.09819752e-02 1.06666613e+00
      2.09028825e-01 6.67109489e-02 0. 7.20971599e-02 4.92149889e-02
      3.23380828e-02 0. 2.12089255e-01 5.83215579e-02 2.10850969e-01
      5.02362698e-02 5.69507539e-01 6.07593954e-01 6.21174097e-01
      4.82748032e-01 1.27143168e+00 1.22972816e-01 1.75377876e-02
      1.96078420e-02 1.08342819e-01 6.13822564e-02 3.72032635e-02
      1.29411757e-01</_>
    <_>
      1.10918701e-01 1.10635109e-01 3.44268560e-01 5.35725117e-01
      9.61781919e-01 1.45059299e+00 1.03202415e+00 4.52180475e-01
      4.00488257e-01 1.29382387e-01 1.12517670e-01 2.51102895e-02
      5.54593578e-02 4.92149927e-02 9.83138606e-02 0. 2.78710067e-01
      1.70399994e-01 1.07198872e-01 1.14562243e-01 5.73323131e-01
      1.93101525e+00 9.45980191e-01 3.50997925e-01 5.84313691e-01
      2.85701286e-02 3.16772014e-02 0. 2.51932502e-01 4.04460952e-02
      2.48021763e-02 8.62745047e-02</_>
    <_>
      2.38539688e-02 0. 8.76889378e-03 0. 1.94281310e-01 1.75377876e-02
      0. 0. 3.52941155e-01 0. 9.30176303e-02 0. 8.31890330e-02
      1.75377876e-02 0. 4.38444689e-02 5.49019575e-01 3.35193798e-02
      1.79322153e-01 1.22143395e-01 5.22360861e-01 5.28661847e-01
      1.34243459e-01 0. 4.63023782e-01 1.24010881e-02 0. 0.
      5.54593513e-03 8.76889378e-03 0. 1.01960778e-01</_></uncompressed_support_vectors>
  <decision_functions>
    <_>
      <sv_count>1</sv_count>
      <rho>-3.0849908929860099e+00</rho>
      <alpha>
        1.</alpha>
      <index>
        0</index></_></decision_functions></opencv_ml_svm>
</opencv_storage>
